// AstroTinyML Spectral Classifier Weights
// Auto-generated for embedded deployment

#ifndef ASTRO_TINYML_H
#define ASTRO_TINYML_H

#define N_FEATURES 64
#define HIDDEN_SIZE 32
#define N_CLASSES 6

static const float weights1[] = {
    0.074588f,0.006024f,0.119309f,0.292665f,-0.033212f,-0.062439f,0.273914f,0.177211f,
    -0.086846f,0.075848f,-0.075358f,-0.126210f,0.034277f,-0.342712f,-0.297551f,-0.101127f,
    -0.159451f,0.022754f,-0.175551f,-0.235953f,0.232616f,0.023422f,-0.017807f,-0.273131f,
    -0.088942f,0.025227f,-0.232800f,0.046757f,-0.129151f,-0.066430f,-0.138408f,0.323155f,
    -0.021725f,-0.164689f,0.132075f,-0.170195f,0.055006f,-0.334719f,-0.230382f,0.015151f,
    0.145259f,0.043560f,-0.017812f,-0.056909f,-0.306802f,-0.124204f,-0.089209f,0.193682f,
    0.060672f,-0.313054f,0.038565f,-0.084836f,-0.140746f,0.098700f,0.199840f,0.173973f,
    -0.154304f,-0.039134f,0.053333f,0.175380f,-0.094342f,-0.022543f,-0.148031f,-0.190522f,
    0.149494f,0.233676f,-0.001762f,0.150472f,0.056742f,-0.130275f,0.057657f,0.299344f,
    -0.019731f,0.266042f,-0.461120f,0.131804f,0.046652f,-0.058028f,0.024984f,-0.357494f,
    -0.020924f,0.058664f,0.262135f,-0.072824f,-0.138617f,-0.055180f,0.137590f,0.041962f,
    -0.088253f,0.082824f,0.005755f,0.162524f,-0.126227f,-0.072212f,-0.109794f,-0.273066f,
    0.018876f,0.080944f,-0.005024f,-0.001707f,-0.222601f,-0.088218f,-0.066722f,-0.121046f,
    -0.026552f,0.073771f,0.345362f,-0.009780f,0.023034f,-0.020935f,-0.334456f,-0.007331f,
    0.058152f,0.423468f,-0.079255f,0.063010f,-0.046110f,-0.145282f,0.181819f,0.114225f,
    0.137998f,-0.146824f,0.202903f,-0.263318f,0.076446f,0.375739f,-0.166165f,-0.088296f,
    0.004264f,-0.047155f,-0.277172f,0.055491f,-0.176845f,0.068009f,-0.163114f,0.305897f,
    -0.138824f,-0.075132f,0.151048f,-0.252946f,0.011846f,0.228533f,-0.282400f,0.033510f,
    0.054698f,0.098436f,-0.228252f,-0.231752f,0.053285f,0.103906f,0.025556f,0.052369f,
    -0.116848f,0.052321f,0.022202f,-0.145904f,0.298030f,0.077886f,-0.226307f,0.114717f,
    -0.163433f,0.132853f,0.215802f,-0.170409f,0.161185f,0.056945f,0.139140f,0.362716f,
    -0.056704f,-0.143934f,-0.155437f,-0.156962f,0.013990f,0.056850f,0.057653f,0.139887f,
    0.018843f,0.252318f,-0.041633f,0.500122f,0.116856f,-0.119624f,-0.213388f,0.069690f,
    -0.034028f,0.118403f,0.077296f,-0.020465f,-0.151461f,-0.281904f,-0.118679f,0.137578f,
    0.008344f,-0.181790f,0.025217f,0.113895f,-0.131018f,0.013266f,0.004192f,-0.180299f,
    0.065203f,0.102076f,0.203464f,0.144617f,-0.278566f,-0.170057f,0.095577f,0.089572f,
    0.137101f,0.668268f,0.061348f,0.210311f,0.130377f,0.176732f,-0.076280f,0.115402f,
    -0.138292f,-0.024067f,-0.122544f,0.000838f,0.381210f,-0.343006f,0.134698f,-0.269481f,
    -0.098127f,0.207769f,-0.001539f,-0.152344f,-0.111882f,0.133402f,-0.124232f,0.015144f,
    0.022457f,-0.103641f,0.380010f,0.115580f,-0.396220f,0.036320f,-0.124856f,0.156375f,
    -0.146433f,-0.018738f,0.076700f,0.136053f,-0.226951f,-0.078096f,-0.064034f,-0.103558f,
    0.306021f,0.083385f,-0.222681f,0.167295f,0.370313f,0.194377f,-0.224303f,-0.067673f,
    0.207420f,-0.109005f,0.065737f,0.174578f,-0.148128f,0.002590f,-0.568106f,-0.204024f,
    -0.030371f,-0.208780f,0.289697f,-0.250024f,-0.115114f,0.025624f,0.246869f,-0.247579f,
    0.199991f,0.003408f,-0.188715f,0.064146f,0.019168f,-0.123752f,0.032131f,-0.056653f,
    0.013983f,0.129579f,0.277785f,-0.214365f,0.371920f,-0.333700f,0.017641f,0.122192f,
    0.027917f,-0.109279f,-0.046065f,-0.076466f,-0.091840f,0.165606f,0.071198f,-0.143589f,
    0.175077f,0.051309f,0.138854f,0.117818f,-0.133069f,-0.106781f,0.123187f,0.113878f,
    -0.034394f,0.007382f,0.209925f,-0.126920f,0.082575f,-0.066352f,-0.014526f,0.207603f,
    0.146895f,0.136968f,0.209648f,-0.002116f,0.122296f,-0.034901f,0.067307f,-0.026333f,
    0.016420f,0.095030f,-0.148151f,0.336034f,-0.176419f,-0.212594f,0.203672f,0.137977f,
    0.108372f,0.112089f,-0.001392f,-0.152493f,0.025336f,-0.111192f,0.170700f,-0.023231f,
    -0.129856f,-0.048409f,0.064105f,-0.104177f,-0.145900f,0.035334f,0.044814f,-0.086047f,
    -0.080658f,0.040065f,-0.256973f,-0.244038f,-0.124266f,-0.034797f,0.052383f,0.251092f,
    0.168728f,-0.035200f,-0.005731f,-0.167269f,-0.021462f,-0.032726f,0.067454f,-0.168940f,
    0.102084f,0.269889f,-0.028512f,0.089899f,0.104376f,-0.061213f,0.028185f,0.011224f,
    -0.041683f,-0.151415f,0.043398f,0.066095f,0.271894f,0.108254f,0.407759f,-0.116146f,
    0.158335f,0.028859f,0.425964f,-0.132581f,-0.136818f,-0.084296f,-0.363203f,-0.091983f,
    -0.153437f,0.056871f,0.061004f,0.380021f,0.191412f,-0.101670f,-0.158662f,0.119812f,
    -0.234059f,0.282291f,0.211257f,-0.088014f,-0.336928f,0.237786f,-0.020723f,0.231228f,
    -0.287064f,-0.102490f,-0.044153f,0.007462f,-0.092125f,0.162767f,-0.186803f,-0.028773f,
    0.023433f,0.105710f,0.107124f,-0.190175f,-0.265294f,0.223764f,0.041404f,-0.115695f,
    0.272549f,0.020713f,0.193310f,0.013892f,0.379837f,0.315924f,-0.045552f,0.138279f,
    0.107210f,0.303886f,-0.164755f,0.139304f,0.151627f,-0.307711f,-0.212291f,-0.360039f,
    0.026020f,0.188744f,0.235846f,0.009836f,0.287501f,-0.255688f,-0.291227f,0.000658f,
    0.049429f,0.012566f,-0.358219f,0.002404f,-0.235171f,0.118764f,0.151343f,-0.138208f,
    -0.129665f,-0.230068f,-0.003556f,0.036782f,-0.164920f,0.087038f,-0.093596f,-0.155703f,
    -0.020821f,-0.189115f,-0.102592f,-0.199318f,0.524006f,-0.027215f,-0.121539f,0.026832f,
    -0.017523f,-0.044691f,0.069608f,0.131755f,-0.099828f,-0.129109f,-0.050861f,-0.407860f,
    -0.262705f,0.186990f,0.190706f,-0.086943f,0.110987f,0.063952f,0.454493f,0.133550f,
    -0.039018f,-0.124973f,-0.291748f,0.098317f,-0.106193f,-0.260500f,-0.120617f,-0.169862f,
    0.292660f,0.170279f,0.009919f,0.233247f,-0.060274f,-0.148221f,0.272837f,0.098569f,
    -0.121273f,-0.015471f,-0.201241f,-0.236167f,0.136803f,0.413344f,-0.260123f,0.087421f,
    -0.121438f,-0.055600f,-0.117984f,-0.145460f,-0.010201f,-0.160950f,0.092994f,0.023936f,
    -0.033256f,-0.169993f,-0.100782f,0.108080f,0.088509f,-0.186208f,0.009167f,0.135186f,
    -0.312318f,0.123634f,-0.107964f,0.103645f,-0.129990f,-0.320503f,-0.279759f,-0.001093f,
    0.111743f,-0.120305f,0.105085f,-0.272401f,-0.004121f,-0.193475f,-0.135439f,-0.001227f,
    -0.160806f,-0.063806f,0.178199f,-0.096919f,0.141528f,-0.215596f,0.107641f,0.260863f,
    -0.447728f,-0.135790f,0.090583f,-0.011046f,0.076276f,-0.091130f,0.020581f,-0.055891f,
    0.219680f,0.055610f,0.058738f,-0.059858f,-0.110936f,-0.073941f,0.061584f,-0.069353f,
    0.036452f,0.372447f,0.146688f,-0.075502f,0.204436f,-0.102200f,-0.336857f,-0.163119f,
    -0.337363f,-0.054603f,0.006056f,0.303563f,0.059696f,-0.025732f,0.185841f,-0.377387f,
    0.036560f,0.127720f,-0.252659f,0.167217f,0.061325f,-0.089178f,0.102690f,0.420195f,
    0.020363f,0.041053f,-0.079194f,-0.161910f,0.189810f,-0.160798f,0.021929f,-0.091831f,
    0.117101f,0.063481f,0.169824f,-0.072184f,-0.050960f,-0.145471f,-0.101118f,0.051428f,
    0.134700f,-0.172259f,0.126818f,0.227732f,0.066537f,0.315566f,-0.170070f,-0.236167f,
    -0.317660f,0.265543f,0.103880f,0.014472f,0.055769f,-0.182017f,0.436625f,-0.008390f,
    0.029764f,0.149576f,0.086559f,0.055726f,-0.173225f,0.090109f,0.323727f,0.242355f,
    0.276104f,-0.075020f,-0.175624f,-0.037567f,0.006361f,0.162716f,-0.273742f,0.287625f,
    -0.037868f,-0.066582f,-0.165548f,-0.280145f,0.147560f,0.026627f,-0.180986f,-0.211922f,
    -0.058219f,0.301364f,-0.038912f,-0.264618f,-0.047364f,-0.065447f,-0.479755f,0.021327f,
    -0.048380f,0.092359f,0.329354f,0.175424f,-0.028404f,-0.200590f,0.462040f,0.004745f,
    -0.010321f,-0.032666f,0.040054f,-0.012831f,-0.108506f,-0.059541f,-0.029977f,-0.111492f,
    -0.114599f,0.013721f,-0.060661f,0.253171f,-0.468201f,0.182405f,0.173757f,-0.379493f,
    -0.067071f,-0.056826f,-0.260522f,-0.105703f,-0.187696f,0.323636f,0.170753f,0.198821f,
    0.140356f,-0.191858f,-0.093142f,0.097652f,-0.250513f,0.131371f,-0.050527f,-0.061696f,
    0.108278f,0.081363f,-0.065058f,0.187754f,-0.198153f,0.082121f,0.126200f,-0.039881f,
    0.051936f,-0.211544f,0.172914f,-0.024571f,-0.090565f,0.197914f,-0.084779f,-0.233158f,
    -0.279510f,0.127591f,-0.226065f,0.320527f,-0.363748f,0.278119f,0.032044f,0.010424f,
    -0.104125f,0.059925f,0.002623f,0.168729f,0.015313f,0.023087f,-0.057743f,-0.016495f,
    0.082697f,-0.316695f,-0.243678f,0.145800f,0.008965f,0.017793f,-0.023403f,0.047727f,
    -0.099630f,-0.132733f,0.012716f,-0.187801f,0.050028f,-0.314444f,0.156204f,0.079840f,
    0.032455f,0.178809f,0.281620f,0.202694f,-0.312037f,-0.210388f,-0.105962f,-0.024073f,
    0.101068f,-0.104767f,0.035838f,-0.119902f,-0.133532f,-0.247792f,-0.171802f,-0.234282f,
    -0.167390f,0.200201f,-0.181984f,0.449634f,0.073016f,0.009941f,-0.128272f,0.139678f,
    -0.110899f,0.031025f,0.446928f,-0.009625f,0.198120f,-0.111482f,0.041138f,0.327969f,
    -0.116532f,0.344426f,0.128538f,-0.083309f,0.117029f,0.153510f,0.105013f,-0.242466f,
    -0.134974f,-0.054088f,-0.007966f,0.078194f,0.023429f,-0.239147f,0.073579f,0.106817f,
    0.123224f,0.169884f,0.137867f,0.093288f,-0.034763f,-0.246919f,0.052103f,0.024084f,
    0.051009f,-0.221143f,-0.213300f,0.171828f,-0.030458f,0.107654f,-0.019084f,-0.001831f,
    0.153180f,-0.084307f,0.005572f,-0.053520f,-0.064649f,-0.039156f,0.044372f,-0.111415f,
    0.237031f,-0.148909f,-0.033477f,-0.067515f,0.229041f,0.037163f,0.174416f,-0.257058f,
    0.032083f,0.160752f,0.005242f,0.170933f,-0.100319f,0.223238f,0.429164f,-0.049468f,
    -0.085532f,0.265204f,0.280584f,-0.085841f,-0.072593f,-0.037201f,-0.198677f,-0.148040f,
    -0.198409f,-0.088888f,-0.002473f,0.090656f,0.287881f,-0.191253f,0.172334f,0.007085f,
    -0.003586f,0.082706f,-0.195087f,0.017552f,0.006064f,0.083633f,0.054595f,0.437303f,
    -0.119873f,-0.148492f,-0.127290f,-0.095121f,-0.147559f,0.279566f,0.227179f,-0.119250f,
    -0.129882f,0.092626f,-0.130625f,0.089147f,0.014377f,-0.276312f,0.244263f,0.317618f,
    -0.126344f,-0.062827f,0.038858f,0.086819f,0.131563f,0.369327f,-0.027726f,-0.167551f,
    -0.233431f,-0.109426f,-0.003303f,0.320859f,-0.117670f,0.040127f,-0.010315f,0.215092f,
    0.449122f,-0.083970f,-0.106558f,0.170610f,0.106687f,0.311696f,0.123778f,-0.056695f,
    0.098017f,0.205827f,0.138634f,0.096170f,0.187940f,0.217399f,0.288829f,0.132887f,
    -0.055427f,0.075220f,0.216427f,-0.087685f,0.077729f,-0.084468f,0.003956f,0.272329f,
    0.043522f,-0.026976f,-0.237787f,0.071873f,0.083462f,0.380405f,-0.051050f,0.045006f,
    0.031371f,0.215449f,-0.036634f,0.051331f,0.070207f,0.099780f,-0.099491f,0.011404f,
    0.198092f,-0.172138f,-0.006848f,-0.148811f,0.185064f,-0.277028f,-0.134498f,0.066290f,
    0.264990f,-0.015018f,-0.110984f,0.347492f,-0.242727f,-0.374807f,0.080684f,-0.122228f,
    -0.172467f,0.153277f,0.047812f,-0.083192f,-0.246615f,0.154866f,0.108130f,-0.015595f,
    0.340011f,-0.163671f,-0.284338f,-0.133865f,-0.016980f,0.017996f,-0.021364f,0.076581f,
    -0.235063f,0.264027f,-0.017580f,0.207657f,0.059455f,0.090989f,0.149156f,0.096071f,
    0.093125f,0.269594f,0.039942f,0.156663f,-0.004669f,0.237324f,-0.122880f,0.360228f,
    -0.005444f,-0.270571f,0.028969f,-0.172142f,0.132244f,-0.119256f,-0.073480f,-0.331723f,
    -0.062029f,-0.467855f,-0.300606f,0.144501f,0.108511f,0.136991f,-0.197039f,-0.031416f,
    0.011289f,-0.197299f,0.234174f,0.133833f,-0.065402f,-0.007481f,0.010784f,-0.362117f,
    -0.054262f,-0.115105f,-0.188818f,-0.025167f,0.328980f,0.128681f,-0.096453f,0.071915f,
    0.259533f,0.175749f,0.010127f,-0.100447f,0.097873f,0.072007f,0.150242f,0.116696f,
    0.174177f,-0.085916f,0.224540f,0.017474f,0.359273f,-0.150925f,0.329694f,0.049818f,
    -0.122176f,-0.077197f,-0.053581f,0.082905f,0.094592f,-0.088931f,0.037704f,0.393766f,
    0.289512f,0.068131f,0.015825f,-0.013929f,0.115854f,-0.196481f,-0.052954f,-0.273308f,
    0.057912f,0.108601f,-0.082061f,0.263185f,-0.162050f,-0.276212f,0.049380f,0.177731f,
    0.328697f,-0.077818f,0.159634f,0.010782f,-0.036525f,0.195999f,0.092091f,-0.300280f,
    0.264942f,0.233774f,-0.152289f,0.058842f,0.084440f,0.030743f,-0.134425f,-0.133212f,
    -0.015637f,0.219253f,0.085565f,-0.033603f,0.146129f,-0.488370f,0.209223f,-0.330607f,
    -0.048857f,-0.190732f,-0.230597f,0.211531f,-0.114474f,0.065390f,-0.017301f,0.091754f,
    -0.006722f,-0.230278f,0.170849f,-0.107155f,-0.285253f,-0.102679f,0.287527f,0.163904f,
    -0.065408f,-0.052319f,-0.052344f,0.371855f,0.067038f,0.090060f,0.218761f,0.056143f,
    -0.068081f,-0.020668f,-0.018911f,0.015502f,0.142656f,0.014330f,0.134475f,-0.019364f,
    0.025250f,-0.365295f,0.159106f,0.051080f,0.176615f,-0.518005f,0.365220f,-0.020750f,
    0.175019f,-0.206505f,0.090654f,-0.200937f,-0.130153f,0.332761f,-0.023688f,0.040837f,
    0.160174f,0.085565f,0.003295f,0.055168f,0.418351f,-0.000566f,0.039792f,0.185292f,
    0.204319f,0.201025f,0.122071f,-0.228889f,0.281860f,-0.218918f,0.045895f,-0.111121f,
    -0.026340f,0.054864f,0.060757f,0.066043f,0.310492f,0.077039f,-0.033732f,0.161952f,
    0.238928f,-0.210828f,0.107721f,0.145863f,-0.045663f,0.274720f,-0.050980f,0.007128f,
    -0.028968f,-0.003023f,-0.199764f,-0.259239f,0.280006f,-0.165715f,-0.205455f,-0.390756f,
    -0.128708f,-0.220747f,0.281081f,0.208959f,-0.111247f,0.412833f,0.181265f,-0.074938f,
    -0.425165f,0.403755f,-0.249558f,-0.289668f,0.160442f,0.431647f,0.235531f,0.108367f,
    0.075202f,0.135528f,0.125557f,0.027357f,0.004534f,-0.035354f,-0.110969f,-0.037330f,
    -0.298731f,-0.013135f,-0.179365f,-0.195909f,0.030200f,0.262425f,0.185687f,-0.270283f,
    -0.224615f,0.144098f,-0.180270f,-0.077979f,0.120139f,-0.161838f,0.025595f,-0.247370f,
    -0.091231f,0.036876f,-0.287691f,0.077950f,0.113697f,0.062327f,0.034417f,0.238768f,
    -0.006176f,-0.104798f,-0.026215f,0.078808f,-0.019625f,-0.013190f,-0.108348f,-0.111876f,
    -0.240053f,0.269269f,-0.308061f,-0.155750f,-0.125157f,0.183827f,-0.101857f,0.180442f,
    -0.108062f,0.042628f,-0.138040f,0.353727f,-0.218483f,0.038594f,0.105174f,0.096881f,
    -0.047736f,-0.026099f,0.011031f,-0.035654f,0.191290f,0.388576f,-0.089635f,-0.249182f,
    0.011595f,0.460875f,-0.137572f,0.310423f,0.304729f,-0.067306f,0.076221f,0.272948f,
    -0.064075f,-0.040835f,-0.104956f,-0.183596f,-0.117264f,-0.231621f,-0.023139f,-0.145453f,
    0.040152f,-0.278909f,0.069256f,0.117072f,-0.354158f,0.047504f,0.209755f,-0.186007f,
    0.282907f,0.060266f,-0.123273f,-0.024712f,0.137463f,0.004584f,0.105620f,-0.169670f,
    0.051953f,-0.254897f,-0.027693f,-0.140371f,-0.129507f,0.253549f,0.165333f,0.089199f,
    -0.187407f,-0.063741f,0.192812f,0.012273f,0.406117f,0.052160f,-0.007825f,-0.070405f,
    0.028725f,-0.033278f,0.135727f,0.142256f,-0.145400f,-0.251647f,-0.330770f,0.116613f,
    -0.208534f,-0.390384f,0.070976f,0.427384f,0.030747f,0.142494f,0.023287f,-0.023721f,
    0.181649f,-0.054831f,0.046863f,0.075798f,-0.114275f,0.208726f,-0.055185f,-0.149765f,
    0.099975f,-0.166621f,-0.007539f,-0.010527f,0.189809f,0.069637f,-0.043720f,0.130543f,
    0.254986f,0.102732f,0.011370f,-0.244578f,-0.196130f,-0.075066f,-0.114312f,-0.001224f,
    -0.002096f,0.074281f,-0.009944f,0.067487f,0.025001f,-0.350241f,-0.156143f,-0.032659f,
    -0.200491f,0.093911f,0.279107f,0.235368f,-0.034898f,0.302680f,-0.003381f,-0.077354f,
    -0.103831f,-0.056702f,-0.071518f,0.020266f,0.023401f,-0.016951f,0.036640f,0.199966f,
    0.176601f,-0.262979f,-0.441793f,0.146507f,-0.249204f,-0.057228f,-0.213178f,-0.289412f,
    0.081588f,0.126044f,-0.099002f,-0.473163f,-0.078409f,0.066788f,-0.252785f,0.026554f,
    0.020161f,0.098120f,0.025294f,-0.152955f,0.213668f,0.006981f,-0.030157f,-0.180348f,
    -0.073700f,-0.160846f,-0.036933f,0.294894f,-0.249378f,-0.300167f,0.225589f,-0.048499f,
    -0.115242f,0.199715f,-0.096947f,0.324439f,0.116649f,-0.105922f,0.375268f,-0.067397f,
    0.123345f,0.026268f,0.231985f,0.248942f,0.011526f,-0.134606f,0.090535f,-0.124672f,
    0.363304f,-0.001392f,-0.061348f,0.049944f,-0.243747f,-0.122518f,0.182249f,-0.134179f,
    -0.174845f,0.094194f,0.198898f,0.113329f,0.166259f,-0.150403f,-0.292908f,0.255369f,
    -0.058829f,-0.024141f,0.245048f,0.107886f,0.078188f,0.363023f,-0.119318f,0.206753f,
    0.004791f,0.018350f,0.271315f,0.054151f,0.096114f,0.188174f,-0.055554f,-0.150727f,
    -0.182707f,-0.382024f,0.363283f,-0.178882f,-0.047968f,0.003677f,0.024905f,0.121531f,
    0.162245f,-0.103264f,-0.041477f,0.033973f,-0.055716f,0.267783f,0.041736f,0.120400f,
    0.120844f,0.211196f,0.042261f,-0.241394f,0.065314f,-0.132586f,-0.099207f,0.136396f,
    0.208161f,-0.008070f,0.057707f,0.278052f,0.057429f,0.457139f,0.108428f,-0.315524f,
    0.152585f,0.055238f,0.228417f,0.137491f,-0.025770f,-0.175513f,-0.063007f,-0.168602f,
    -0.095676f,0.100497f,0.285085f,0.059367f,-0.219731f,0.063798f,0.174601f,-0.118199f,
    -0.035955f,0.006520f,-0.150393f,0.137298f,-0.009943f,0.089846f,-0.151505f,-0.106191f,
    0.141012f,-0.054767f,0.304374f,-0.057539f,0.019201f,0.166191f,-0.258904f,-0.306466f,
    -0.283427f,0.228977f,-0.106831f,0.434196f,-0.108403f,0.002382f,0.296183f,0.369735f,
    0.357681f,0.219867f,0.180795f,0.110900f,0.139368f,-0.083906f,-0.106494f,0.011715f,
    -0.033525f,-0.081967f,0.110687f,0.190329f,0.022372f,0.277735f,-0.197862f,-0.066949f,
    -0.116829f,-0.307276f,-0.012726f,-0.003743f,0.238712f,0.117216f,-0.189522f,0.330738f,
    0.213669f,0.120870f,-0.041601f,-0.183599f,-0.069001f,0.161088f,0.357906f,0.289952f,
    -0.096920f,-0.190857f,0.036462f,-0.299917f,0.059450f,-0.012459f,-0.035533f,-0.266022f,
    0.083795f,-0.086478f,-0.218679f,-0.477222f,0.003729f,0.327536f,0.299124f,-0.107187f,
    -0.093424f,0.090569f,-0.177115f,0.064912f,0.103647f,0.221630f,-0.025834f,-0.031576f,
    -0.173313f,-0.143598f,-0.041593f,0.047537f,0.154356f,-0.170054f,0.285792f,-0.032865f,
    -0.009522f,-0.123673f,-0.419978f,0.164314f,0.132301f,-0.036619f,0.050438f,0.105855f,
    -0.292808f,-0.090316f,0.127165f,-0.201908f,0.067939f,-0.224711f,0.086239f,-0.035207f,
    -0.276272f,0.229722f,-0.126412f,-0.129616f,0.018869f,0.200657f,-0.187589f,0.013937f,
    0.085170f,0.137727f,0.011725f,-0.079397f,-0.162966f,-0.005173f,-0.167213f,-0.501310f,
    0.067222f,0.167077f,-0.430908f,-0.173546f,0.103790f,0.376591f,0.048093f,-0.115867f,
    -0.046413f,0.248862f,-0.125769f,-0.115216f,-0.072523f,-0.152931f,0.026998f,0.260098f,
    0.072282f,-0.035358f,-0.052161f,-0.266040f,0.133712f,-0.012442f,-0.039969f,0.569653f,
    0.037958f,-0.129622f,-0.086434f,0.185388f,0.010360f,-0.280628f,0.185449f,-0.103404f,
    0.324571f,0.197859f,-0.080755f,0.232042f,0.013741f,0.164010f,0.123050f,-0.136649f,
    -0.133669f,0.185076f,-0.071401f,-0.048229f,-0.153007f,0.089996f,0.368889f,-0.216737f,
    0.015542f,0.268502f,-0.012104f,0.085923f,-0.204166f,0.073627f,-0.041109f,0.178967f,
    0.209774f,0.467142f,0.080278f,0.042007f,0.019869f,-0.081084f,0.082266f,-0.043182f,
    0.023150f,0.239206f,-0.189370f,0.206145f,0.232873f,-0.007631f,-0.334405f,-0.092965f,
    0.214823f,-0.007465f,-0.189660f,-0.075238f,0.162529f,0.111828f,-0.038159f,-0.098310f,
    -0.059562f,-0.137549f,0.288861f,-0.041196f,0.201236f,0.267603f,0.168667f,-0.073393f,
    0.079180f,0.016574f,-0.176494f,0.042956f,-0.218988f,0.182718f,-0.058738f,0.050805f,
    0.037770f,-0.039591f,0.096418f,-0.076267f,0.153325f,-0.224788f,0.067000f,0.356819f,
    -0.188833f,-0.115368f,0.078968f,0.054438f,0.073836f,0.101967f,0.116955f,0.166741f,
    0.084886f,-0.030549f,0.118350f,0.349664f,-0.044589f,-0.171021f,0.187690f,-0.017104f,
    -0.395473f,0.157923f,-0.104730f,-0.033728f,0.050294f,0.004338f,0.148423f,-0.062104f,
    0.083814f,-0.038992f,0.130614f,0.115563f,-0.163206f,0.205107f,-0.054585f,0.156291f,
    0.052664f,0.328872f,-0.051145f,-0.039054f,0.008005f,-0.037913f,0.146794f,-0.314584f,
    -0.172955f,-0.177622f,0.167079f,0.315504f,-0.038982f,-0.028513f,0.004213f,0.210197f,
    -0.177660f,0.047919f,0.163117f,0.070547f,0.024857f,0.146719f,-0.454295f,0.134937f,
    -0.122370f,-0.317357f,0.090133f,0.248986f,-0.022525f,0.181977f,0.323158f,0.244757f,
    0.286467f,0.129344f,0.000917f,-0.261737f,-0.036754f,-0.132524f,0.387734f,-0.063807f,
    0.031669f,0.120174f,0.009598f,0.317425f,-0.138900f,0.040105f,-0.139721f,-0.230371f,
    -0.110328f,0.011421f,-0.077455f,-0.136396f,-0.251808f,-0.046068f,-0.241244f,0.151503f,
    0.004071f,-0.250596f,-0.043104f,-0.120262f,0.058744f,0.250594f,-0.284635f,0.036218f,
    -0.035305f,0.126369f,0.025823f,-0.102404f,-0.047808f,-0.126476f,0.195665f,-0.022616f,
    0.349119f,-0.003023f,-0.125854f,-0.256027f,-0.350531f,-0.275301f,0.039092f,0.094360f,
    -0.297624f,0.160797f,-0.086951f,0.008545f,0.277859f,0.130469f,-0.025551f,-0.142479f,
    -0.386136f,-0.118713f,-0.028752f,-0.166475f,-0.021159f,0.026699f,-0.001154f,-0.100256f,
    0.013228f,0.081333f,-0.205999f,0.269241f,-0.001383f,0.018433f,0.128981f,0.012321f,
    0.177738f,0.074580f,-0.104818f,0.077523f,-0.218771f,0.016795f,-0.013890f,-0.033757f,
    -0.013358f,-0.317465f,-0.116468f,0.001898f,0.011592f,-0.202070f,0.246064f,-0.138003f,
    0.161425f,0.082800f,-0.127435f,0.318785f,-0.216670f,0.175359f,0.221297f,-0.105723f,
    0.232074f,-0.038386f,0.039457f,0.072082f,-0.010928f,0.158927f,0.145583f,-0.336207f,
    0.245746f,-0.284637f,0.181955f,0.209471f,-0.215258f,-0.071305f,-0.203528f,-0.032807f,
    -0.069308f,0.141102f,0.220568f,0.229094f,-0.109042f,-0.063360f,-0.274642f,-0.127751f,
    0.163979f,0.292529f,-0.219883f,-0.099145f,-0.002922f,0.062786f,-0.105758f,0.087932f,
    -0.103668f,0.000448f,0.084350f,0.024262f,-0.061307f,-0.004263f,-0.011338f,-0.093432f,
    -0.034488f,0.301458f,0.101132f,-0.046280f,0.106845f,-0.061099f,0.199355f,0.070058f,
    -0.019097f,0.088513f,-0.299882f,-0.214773f,-0.225552f,0.006616f,0.328698f,0.403480f,
    0.106163f,0.094823f,-0.329821f,-0.091291f,-0.139224f,-0.096511f,0.010965f,-0.068971f,
    -0.364350f,0.128791f,-0.202643f,0.056288f,0.380577f,-0.147348f,-0.443217f,-0.084023f,
    0.204316f,0.371702f,-0.214056f,0.103588f,-0.096186f,-0.020059f,0.459647f,-0.262783f,
    0.052665f,0.103528f,0.175201f,0.002938f,0.043894f,-0.096471f,0.070971f,-0.045424f,
    0.097571f,-0.059161f,0.059367f,0.002512f,0.198359f,0.004064f,-0.268771f,0.237140f,
    -0.172110f,-0.111130f,-0.117178f,0.265660f,-0.365685f,0.570171f,0.191437f,0.010035f,
    0.002736f,0.062579f,0.091577f,0.127868f,0.077075f,0.017088f,-0.042901f,-0.022565f,
    -0.045851f,0.208542f,0.094831f,-0.537516f,0.107555f,0.005087f,0.019701f,-0.053801f,
    0.191826f,0.174390f,-0.136618f,0.078738f,-0.169609f,-0.230754f,-0.070628f,0.165896f,
    0.156226f,0.094625f,0.116539f,0.113945f,-0.101961f,0.092036f,0.146876f,0.104483f,
    0.223484f,0.136352f,0.061215f,0.202285f,-0.025206f,-0.154564f,-0.036997f,-0.126877f,
    -0.133082f,-0.019766f,-0.149357f,-0.072475f,-0.343404f,0.007463f,0.023787f,-0.129337f,
    0.109795f,0.171997f,-0.284415f,-0.128677f,-0.134194f,-0.152622f,0.184777f,-0.021953f,
    -0.050200f,-0.356083f,0.099909f,-0.197619f,0.017339f,0.065576f,0.244495f,-0.264084f,
    -0.523891f,0.055184f,0.320179f,0.236796f,0.008233f,-0.081207f,0.134211f,-0.169123f,
    0.082027f,0.107324f,0.185856f,0.473851f,0.066166f,-0.121350f,0.020235f,-0.295589f,
    -0.133312f,-0.065287f,-0.081090f,0.039635f,-0.143063f,0.211806f,0.046888f,0.014240f,
};

static const float bias1[] = {
    0.018431f,-0.017651f,0.012647f,-0.055304f,-0.020122f,0.006339f,-0.000313f,0.047100f,
    0.006713f,0.015270f,0.011078f,-0.026392f,0.052659f,0.001170f,-0.003611f,0.003396f,
    0.046211f,0.014520f,0.006110f,-0.000839f,0.012104f,0.061468f,0.004830f,0.003077f,
    -0.012775f,-0.030248f,-0.012327f,-0.018377f,-0.020428f,0.013561f,-0.060991f,-0.042715f,
};

static const float weights2[] = {
    -0.079016f,0.077183f,0.266588f,-0.248983f,-0.186247f,-0.123670f,-0.313684f,-0.243020f,
    -0.135448f,0.195347f,0.152599f,0.016504f,0.198428f,-0.055119f,0.118555f,-0.017448f,
    0.082835f,-0.156408f,-0.582428f,-0.004544f,0.251151f,0.181289f,0.403906f,0.244975f,
    0.021685f,0.053822f,-0.136246f,-0.090399f,0.167489f,0.276624f,-0.043136f,-0.121722f,
    -0.020194f,0.198351f,-0.364101f,-0.581181f,-0.148234f,-0.324993f,-0.152045f,0.042885f,
    -0.126533f,0.351933f,0.092250f,-0.001772f,0.239251f,-0.347952f,0.408484f,-0.121775f,
    0.161180f,-0.263383f,-0.402227f,0.226267f,0.095001f,-0.232560f,-0.227287f,0.341960f,
    -0.332594f,0.399400f,-0.202477f,0.132699f,-0.092897f,0.154512f,-0.164723f,-0.000942f,
    0.017452f,-0.261804f,0.174661f,-0.087424f,-0.083230f,-0.263477f,-0.614869f,-0.062835f,
    0.843858f,0.072067f,0.021157f,-0.120790f,0.007234f,0.047638f,-0.303746f,0.254130f,
    0.183271f,0.210662f,0.122303f,-0.010328f,0.159705f,0.125945f,-0.112488f,-0.063911f,
    0.011028f,0.376699f,-0.315327f,-0.388626f,0.019018f,0.072650f,0.044388f,0.049475f,
    -0.024168f,0.405226f,-0.446376f,-0.224731f,-0.006939f,-0.430308f,-0.057634f,0.462550f,
    -0.039980f,0.074420f,-0.302645f,-0.171541f,0.018600f,-0.112718f,0.342794f,0.111508f,
    -0.304449f,0.014632f,0.144842f,0.275464f,0.374497f,-0.226853f,-0.211656f,-0.322449f,
    -0.076674f,0.153797f,0.237123f,-0.032484f,-0.056827f,0.018973f,-0.220354f,0.495054f,
    -0.436717f,0.060133f,0.585369f,-0.018014f,-0.053794f,-0.103894f,-0.059804f,0.390755f,
    -0.556373f,0.374746f,-0.364376f,-0.037222f,-0.125438f,0.155613f,-0.399754f,0.104365f,
    0.498666f,-0.351465f,0.029885f,-0.120262f,0.103656f,-0.002007f,-0.112198f,0.083134f,
    0.412226f,0.015604f,0.163730f,-0.340917f,-0.159139f,0.039693f,0.436943f,0.059695f,
    -0.067991f,-0.048719f,-0.307181f,0.140367f,0.220821f,-0.113179f,-0.102790f,0.057008f,
    -0.120915f,-0.009097f,0.454629f,-0.041205f,-0.019965f,-0.177457f,0.180680f,-0.065458f,
    -0.189459f,0.408485f,0.341757f,-0.162487f,-0.358615f,0.230793f,-0.218313f,0.176651f,
    -0.479168f,0.191019f,-0.255645f,0.162653f,-0.027890f,-0.236797f,-0.084670f,0.157150f,
};

static const float bias2[] = {
    0.079556f,-0.022870f,-0.000044f,-0.029800f,0.052313f,-0.079154f,
};

static const float feature_mean[] = {
    1.000054f,0.018359f,0.946354f,1.022073f,1.003694f,0.954363f,1.016679f,0.075719f,
    0.062316f,0.006579f,0.499326f,0.026112f,5.173333f,99.000000f,58.685333f,0.322719f,
    0.998924f,0.016780f,0.996113f,0.011385f,0.995122f,0.018187f,1.000201f,0.011723f,
    1.000262f,0.017342f,1.003424f,0.010085f,1.004277f,0.009668f,1.002105f,0.017351f,
    -0.713458f,-0.795043f,0.029121f,0.482075f,0.051883f,0.003543f,0.955321f,0.971040f,
    0.949260f,0.975142f,0.956645f,0.977665f,0.978920f,0.958334f,0.058836f,0.040087f,
    0.063123f,0.040676f,0.060319f,0.039580f,0.038825f,0.060300f,0.058836f,0.040087f,
    0.063123f,0.040676f,0.060319f,0.039580f,0.038825f,0.060300f,0.058836f,0.040087f,
};

static const float feature_std[] = {
    0.011467f,0.017440f,0.071650f,0.017802f,0.010049f,0.070768f,0.017065f,0.069083f,
    0.068381f,0.005510f,0.010318f,0.027456f,10.409961f,134.995911f,126.526591f,0.305958f,
    0.013832f,0.023392f,0.007176f,0.011904f,0.012558f,0.022939f,0.012763f,0.012308f,
    0.017312f,0.023361f,0.015447f,0.009837f,0.016661f,0.009882f,0.019846f,0.023467f,
    1.147128f,3.764142f,0.000583f,0.037904f,0.071442f,0.001276f,0.074432f,0.030978f,
    0.071903f,0.034200f,0.076431f,0.036546f,0.038132f,0.078003f,0.073137f,0.032827f,
    0.071385f,0.034656f,0.072872f,0.033738f,0.034653f,0.073250f,0.073137f,0.032827f,
    0.071385f,0.034656f,0.072872f,0.033738f,0.034653f,0.073250f,0.073137f,0.032827f,
};

#endif // ASTRO_TINYML_H
